[[[[-0.255 -0.307 -0.058 -0.104 -0.257 0.013 -0.382 -0.012 0.040 0.002
    -0.053 0.146 0.128 -0.150 -0.290 -0.007 -0.206 0.087 0.085 0.097
    -0.111 0.008 -0.043 0.067 0.045 0.137 -0.075 -0.118 -0.015 0.063
    -0.028 0.016]
   [0.137 -0.043 0.269 0.164 -0.181 -0.275 0.031 -0.445 -0.158 0.029
    -0.074 -0.065 -0.174 -0.289 -0.218 -0.100 0.036 -0.054 0.114 0.017
    0.296 -0.166 -0.058 -0.117 -0.545 -0.025 0.149 -0.277 0.137 -0.046
    0.045 0.038]
   [-0.072 0.149 0.085 0.159 0.018 -0.009 0.161 0.025 0.097 0.018
    -0.019 -0.243 -0.007 -0.124 -0.043 0.104 -0.018 0.069 -0.028 0.030
    0.030 0.118 0.208 -0.037 -0.072 0.195 -0.043 0.192 -0.102 -0.064
    -0.005 -0.081]
   [0.194 0.082 -0.029 0.043 -0.127 0.023 0.022 0.028 -0.148 -0.137
    0.064 -0.088 0.021 -0.097 0.165 0.029 -0.061 0.098 0.077 0.049
    -0.026 0.019 0.093 -0.186 0.046 -0.094 0.046 -0.176 0.223 -0.062
    -0.218 0.065]
   [0.013 -0.188 -0.024 -0.133 0.106 -0.139 0.117 -0.125 -0.085 -0.071
    -0.097 0.065 0.037 0.006 0.035 -0.111 -0.087 -0.164 0.094 -0.029
    -0.042 0.109 0.213 0.113 0.101 -0.255 0.038 -0.040 0.237 0.065
    -0.071 -0.018]
   [-0.337 0.080 -0.098 0.158 0.257 -0.469 0.134 -0.110 0.089 -0.420
    -0.168 0.064 0.130 -0.102 0.044 -0.111 0.294 -0.259 -0.165 -0.236
    -0.021 0.109 -0.158 0.027 -0.044 -0.021 -0.284 0.136 -0.219 -0.175
    0.181 -0.237]
   [-0.156 -0.174 0.291 0.406 -0.001 0.098 -0.041 -0.123 0.107 -0.194
    0.239 0.085 0.290 -0.228 0.172 -0.111 0.197 0.094 0.331 0.151 0.417
    0.044 0.071 0.030 -0.110 -0.286 -0.037 -0.136 -0.395 -0.020 -0.018
    0.003]
   [-0.124 -0.018 0.127 0.113 0.098 -0.043 -0.196 0.033 -0.118 -0.047
    0.084 -0.100 0.122 -0.100 -0.127 0.197 0.177 -0.000 -0.107 -0.024
    -0.043 -0.121 0.048 0.095 0.019 0.110 -0.114 0.132 -0.058 0.088
    0.043 0.091]
   [0.041 0.122 -0.072 0.087 -0.091 0.092 -0.111 0.040 -0.093 0.145
    -0.110 -0.094 0.048 0.101 -0.059 -0.005 0.160 0.084 0.067 0.198
    -0.019 -0.071 0.015 -0.081 -0.075 -0.057 -0.067 -0.021 -0.196 0.117
    -0.142 -0.098]
   [-0.099 0.046 0.040 -0.025 0.129 0.063 -0.036 0.097 -0.025 -0.051
    -0.105 0.062 0.077 0.107 0.107 0.023 -0.080 -0.009 0.034 0.060
    0.031 0.017 0.060 0.048 0.055 0.002 0.004 -0.013 0.080 0.069 0.038
    -0.060]
   [0.178 0.052 0.005 0.023 -0.175 0.050 0.006 -0.065 -0.074 -0.061
    0.010 0.039 0.126 0.012 0.014 0.150 -0.011 -0.086 -0.212 -0.139
    -0.090 0.087 0.109 -0.083 0.086 0.060 -0.020 -0.032 -0.136 -0.024
    -0.098 -0.036]
   [0.256 0.109 -0.022 0.046 -0.092 0.047 0.157 -0.014 0.054 0.064
    0.030 -0.067 -0.080 -0.123 0.063 0.091 0.127 -0.026 -0.128 -0.026
    -0.075 -0.147 0.110 0.050 -0.098 0.139 -0.043 0.114 -0.142 0.165
    0.036 -0.036]
   [0.281 0.093 -0.048 -0.051 0.129 -0.275 0.493 -0.052 0.074 0.224
    -0.224 -0.076 -0.266 -0.053 0.350 0.051 -0.077 0.047 0.062 0.067
    -0.095 0.080 0.004 0.052 -0.107 0.106 -0.148 -0.022 0.197 -0.003
    0.106 -0.208]
   [-0.092 -0.069 -0.055 -0.211 -0.140 0.108 -0.066 -0.061 0.070 -0.009
    -0.109 0.019 -0.047 -0.056 0.055 0.045 0.009 -0.091 0.028 -0.195
    -0.090 0.160 -0.017 0.071 0.085 -0.069 0.033 0.056 -0.105 0.048
    -0.104 -0.070]
   [-0.052 -0.077 0.080 0.162 -0.044 0.148 -0.300 -0.080 0.013 0.046
    -0.046 0.029 0.073 0.089 0.192 -0.149 0.235 -0.054 -0.093 0.213
    -0.238 -0.065 0.002 -0.086 -0.047 -0.172 -0.003 -0.100 -0.173
    -0.082 -0.062 -0.244]
   [-0.117 -0.115 -0.044 -0.173 0.029 -0.077 0.163 0.069 0.032 0.162
    -0.116 -0.060 -0.148 -0.146 0.117 0.165 0.041 -0.090 0.100 -0.095
    -0.224 0.206 0.207 0.067 0.073 0.099 -0.234 0.133 0.097 -0.052
    0.126 -0.255]]

  [[0.048 -0.308 0.041 0.066 -0.232 0.005 -0.239 -0.064 0.094 0.160
    -0.029 0.127 -0.049 -0.188 0.162 0.091 0.017 0.057 0.130 0.196
    -0.309 0.135 0.105 -0.176 -0.139 0.038 -0.080 -0.329 -0.240 -0.081
    -0.019 -0.015]
   [-0.151 0.092 0.113 0.189 0.158 -0.152 -0.049 -0.491 -0.083 -0.239
    0.012 -0.156 -0.058 -0.263 -0.507 -0.058 0.120 -0.296 -0.017 -0.216
    0.025 -0.191 0.030 -0.190 -0.395 -0.005 -0.244 -0.411 0.070 -0.101
    0.157 0.088]
   [0.101 0.137 0.193 0.131 -0.116 -0.023 0.012 0.030 -0.019 -0.178
    -0.108 -0.290 -0.031 0.037 -0.142 0.151 0.008 0.173 -0.028 -0.157
    0.092 0.206 0.018 -0.018 -0.192 -0.047 0.121 0.181 -0.097 -0.001
    0.031 -0.161]
   [-0.303 0.009 -0.002 0.216 0.144 -0.192 0.012 0.020 -0.202 -0.241
    0.183 -0.111 0.016 0.017 -0.116 -0.177 -0.105 -0.110 -0.108 -0.140
    0.044 -0.303 -0.286 0.141 0.002 0.134 -0.135 0.015 0.121 -0.093
    -0.067 0.073]
   [0.157 -0.069 0.129 0.011 0.131 -0.038 -0.085 -0.150 -0.104 -0.055
    0.174 0.025 -0.072 -0.007 0.021 -0.212 -0.069 -0.224 0.110 -0.255
    0.018 -0.159 -0.245 -0.113 0.099 0.022 0.112 -0.084 0.230 -0.108
    -0.147 0.109]
   [0.429 0.137 -0.477 -0.012 0.289 -0.198 -0.257 -0.001 -0.051 0.158
    -0.112 -0.014 -0.088 -0.183 -0.198 -0.024 0.041 -0.261 -0.013 0.003
    0.158 -0.041 0.005 -0.357 0.137 -0.036 0.034 -0.079 -0.271 -0.279
    -0.064 -0.212]
   [0.043 -0.224 0.283 0.293 -0.111 0.143 0.215 -0.178 -0.094 -0.115
    0.175 0.248 0.262 -0.145 0.130 -0.061 0.124 0.188 0.099 0.137 0.513
    -0.371 -0.039 0.035 -0.141 -0.113 -0.039 -0.041 -0.297 0.029 0.037
    -0.056]
   [0.066 -0.083 0.135 -0.039 0.181 0.075 -0.089 -0.065 0.030 -0.095
    0.123 -0.049 0.054 -0.223 -0.002 0.177 0.140 -0.176 -0.086 -0.083
    0.050 0.208 0.180 -0.085 0.019 -0.092 -0.076 -0.062 -0.408 0.039
    0.049 -0.203]
   [-0.029 0.082 0.061 0.104 -0.082 0.014 0.059 -0.109 0.092 -0.081
    0.075 -0.002 0.027 0.005 0.150 -0.147 0.211 0.168 -0.096 0.135
    0.082 -0.128 -0.027 0.166 0.059 0.120 -0.023 -0.079 -0.127 -0.060
    -0.062 -0.026]
   [-0.078 -0.043 -0.051 0.008 -0.038 -0.023 -0.109 -0.018 0.007 -0.044
    -0.029 0.022 0.050 0.003 -0.083 0.027 0.096 0.079 0.050 -0.021
    0.120 -0.075 0.160 0.028 -0.031 -0.093 -0.078 -0.056 -0.007 -0.101
    0.039 -0.066]
   [-0.115 0.076 0.128 -0.094 -0.038 0.113 0.013 0.010 0.089 -0.032
    0.103 -0.118 0.054 0.044 -0.143 -0.067 0.062 -0.129 -0.107 -0.064
    0.034 -0.040 0.114 0.129 0.169 -0.090 -0.047 -0.027 -0.088 0.085
    -0.115 -0.020]
   [-0.355 0.021 0.135 0.002 0.045 0.120 -0.038 0.124 0.089 0.080 0.058
    -0.036 0.100 -0.074 -0.159 0.100 0.144 -0.002 -0.105 -0.108 -0.125
    0.011 0.210 0.090 -0.055 0.081 -0.162 -0.036 -0.273 0.111 0.002
    -0.093]
   [-0.410 -0.152 -0.006 -0.016 0.160 -0.062 0.159 0.081 -0.008 -0.191
    -0.083 0.031 0.114 -0.176 0.071 0.138 0.099 0.080 0.005 -0.113
    -0.019 0.137 0.111 0.135 -0.160 -0.239 -0.214 0.172 0.177 -0.049
    0.170 0.028]
   [0.085 0.134 -0.027 -0.098 -0.105 0.129 -0.123 0.114 0.046 0.055
    -0.025 0.047 -0.081 -0.003 -0.036 -0.037 0.056 -0.056 0.069 -0.016
    0.056 -0.105 -0.119 -0.102 0.065 0.039 0.126 0.040 0.035 -0.081
    -0.167 0.008]
   [-0.034 0.068 0.047 0.119 -0.104 0.056 0.133 -0.055 0.070 0.116
    -0.059 0.020 0.110 -0.006 0.117 -0.084 0.228 0.075 -0.071 -0.038
    -0.014 0.001 -0.125 0.136 -0.129 -0.055 0.090 -0.137 0.005 0.040
    0.001 -0.204]
   [0.178 -0.141 0.143 -0.225 -0.127 -0.009 -0.038 -0.014 -0.018 0.135
    -0.189 0.097 -0.122 -0.092 0.191 0.063 -0.010 -0.206 0.184 -0.151
    -0.130 0.075 0.020 -0.091 0.012 -0.116 -0.093 -0.055 0.093 0.001
    -0.026 -0.105]]

  [[-0.112 -0.240 0.055 -0.011 -0.286 0.047 0.052 -0.078 0.031 -0.025
    0.045 -0.033 0.109 -0.121 0.257 0.080 0.260 0.052 0.102 0.059
    -0.182 -0.060 -0.005 -0.008 -0.009 -0.047 0.060 -0.353 -0.006
    -0.062 -0.083 -0.154]
   [0.189 -0.006 0.104 -0.423 0.182 -0.058 0.174 -0.310 -0.074 0.030
    -0.106 -0.019 -0.159 -0.165 -0.305 -0.045 -0.011 -0.335 0.072
    -0.196 0.017 0.134 -0.181 -0.156 -0.292 -0.125 -0.032 -0.181 -0.137
    -0.042 -0.076 -0.371]
   [-0.086 -0.020 0.240 0.168 -0.004 0.167 0.025 0.012 -0.059 0.103
    -0.089 -0.271 -0.151 0.029 -0.217 -0.017 -0.165 0.162 -0.036 -0.148
    0.036 -0.166 0.050 -0.079 0.036 0.092 0.168 0.130 -0.016 0.085
    -0.073 0.027]
   [0.076 -0.056 -0.184 0.070 0.113 -0.210 -0.130 -0.036 -0.088 -0.095
    0.141 -0.019 -0.064 0.150 -0.245 -0.124 0.013 -0.117 -0.202 -0.019
    0.138 0.036 -0.168 -0.076 0.059 0.154 -0.228 -0.148 -0.083 0.018
    0.165 0.136]
   [-0.167 -0.034 0.032 0.075 0.120 -0.111 -0.013 -0.140 -0.077 0.097
    0.018 -0.065 -0.277 0.111 -0.033 -0.209 -0.169 -0.211 0.025 0.163
    -0.043 -0.072 -0.392 0.184 -0.097 0.230 -0.153 -0.034 0.127 0.044
    0.060 0.185]
   [-0.207 0.014 -0.240 -0.012 -0.093 -0.293 -0.293 -0.013 -0.020 0.328
    0.102 0.024 -0.027 0.141 -0.119 -0.166 -0.049 -0.298 -0.121 0.157
    0.145 -0.002 0.119 0.120 0.107 -0.034 -0.044 -0.204 0.072 -0.252
    -0.265 -0.490]
   [-0.031 -0.261 0.261 0.175 -0.127 0.006 -0.009 -0.271 -0.328 -0.191
    0.306 0.324 0.300 -0.156 0.118 0.024 0.162 0.074 0.191 -0.008 0.338
    -0.044 0.089 0.038 -0.080 0.168 -0.137 -0.164 -0.121 0.129 -0.083
    0.043]
   [0.004 0.097 0.010 -0.106 0.107 0.084 0.152 0.106 -0.128 -0.045
    0.123 0.095 -0.008 -0.099 0.053 -0.092 0.116 -0.119 0.033 -0.089
    0.069 -0.070 -0.073 -0.015 -0.119 0.024 0.236 -0.111 -0.137 -0.060
    -0.233 -0.076]
   [0.117 0.027 -0.071 0.007 0.024 -0.146 0.087 -0.043 -0.039 -0.172
    -0.109 -0.021 0.063 0.184 0.088 -0.159 0.118 0.099 0.015 -0.018
    0.068 0.137 0.028 -0.019 0.000 0.016 -0.014 0.136 -0.267 0.103
    0.137 -0.104]
   [0.091 -0.085 0.108 -0.022 0.065 0.065 0.017 0.041 -0.072 -0.076
    0.136 0.094 0.079 -0.060 -0.043 0.052 -0.064 -0.064 -0.007 -0.011
    0.021 -0.107 -0.030 -0.038 0.082 -0.084 -0.091 0.020 0.037 -0.009
    0.085 0.012]
   [-0.069 -0.085 0.033 -0.113 -0.077 0.031 -0.012 0.097 -0.136 0.060
    -0.019 0.091 0.004 0.101 -0.093 -0.137 -0.029 -0.061 -0.201 0.131
    0.058 0.033 -0.119 -0.088 0.126 -0.125 0.051 -0.078 -0.178 0.030
    -0.023 -0.011]
   [0.215 -0.030 0.005 -0.313 -0.085 0.175 0.052 0.046 -0.012 0.180
    0.053 0.012 0.124 -0.007 0.079 -0.071 0.071 0.101 -0.047 -0.037
    -0.037 0.050 0.121 -0.138 0.083 -0.187 0.058 0.063 -0.264 0.098
    -0.105 -0.087]
   [0.279 0.113 -0.185 -0.255 0.152 0.014 -0.012 0.094 0.054 0.223
    0.017 0.082 -0.096 -0.147 -0.182 0.259 -0.225 -0.089 0.044 -0.199
    -0.040 -0.011 -0.146 -0.420 0.006 -0.123 0.027 0.060 0.232 -0.158
    -0.171 -0.109]
   [0.074 -0.083 -0.002 -0.029 -0.137 -0.097 -0.092 -0.004 -0.024 0.051
    0.073 0.022 -0.167 0.073 0.118 0.059 0.090 -0.040 -0.043 -0.098
    -0.105 -0.011 0.043 0.046 -0.040 0.003 -0.042 -0.080 0.075 0.031
    0.082 0.059]
   [-0.068 0.019 0.072 -0.028 -0.020 0.099 0.106 0.056 -0.068 0.081
    -0.120 0.170 -0.016 0.128 0.053 -0.163 0.041 0.177 -0.102 -0.072
    0.120 0.002 -0.221 -0.034 -0.069 0.076 -0.117 -0.085 -0.195 -0.008
    0.140 -0.235]
   [-0.066 0.012 -0.045 -0.268 -0.197 0.114 0.024 0.050 -0.022 0.028
    -0.005 0.076 -0.150 -0.025 0.105 -0.123 -0.134 -0.105 0.070 -0.014
    -0.134 -0.175 -0.115 0.053 -0.092 -0.060 0.068 -0.069 0.197 -0.056
    -0.419 0.076]]]


 [[[-0.103 -0.372 -0.008 0.055 -0.228 -0.126 -0.052 0.050 0.051 0.054
    -0.123 0.102 0.059 0.085 -0.204 0.192 -0.167 -0.048 -0.004 -0.318
    0.001 0.067 0.192 0.105 -0.056 0.141 -0.033 -0.076 0.058 -0.067
    0.019 -0.199]
   [-0.003 -0.106 0.097 0.015 -0.350 -0.430 -0.273 -0.374 -0.046 -0.018
    0.130 0.031 -0.215 -0.537 -0.002 -0.028 -0.314 -0.169 0.254 -0.337
    -0.172 -0.181 0.178 -0.228 -0.439 -0.091 -0.134 -0.153 0.164 0.063
    0.161 -0.158]
   [-0.139 0.007 -0.106 -0.041 0.098 -0.154 0.038 -0.041 0.037 0.008
    -0.236 -0.274 -0.122 -0.086 0.053 -0.054 0.020 0.020 0.135 0.061
    -0.095 0.108 -0.014 0.156 -0.211 -0.058 0.051 0.164 0.010 -0.097
    0.153 -0.067]
   [0.190 0.121 -0.276 0.173 -0.019 -0.117 -0.141 -0.151 -0.010 -0.036
    0.108 -0.101 0.063 -0.012 -0.009 0.052 0.027 0.039 -0.223 0.104
    -0.008 -0.337 -0.330 -0.098 0.023 -0.008 0.041 -0.125 0.009 -0.226
    -0.142 0.097]
   [-0.038 -0.148 -0.152 0.089 0.035 -0.080 0.131 -0.123 0.033 -0.170
    0.091 -0.035 0.159 -0.118 0.037 0.024 0.196 -0.150 0.069 -0.014
    0.043 -0.129 -0.220 0.024 -0.161 -0.249 0.070 -0.179 -0.013 -0.180
    -0.089 0.218]
   [-0.258 -0.199 -0.029 0.137 0.103 -0.025 0.100 -0.257 0.062 -0.185
    0.056 0.071 0.195 -0.326 0.065 -0.038 -0.002 -0.267 0.026 0.033
    -0.242 -0.091 -0.170 -0.006 -0.123 -0.111 -0.297 0.005 0.065 -0.346
    0.100 0.106]
   [-0.145 -0.132 0.065 0.271 -0.133 0.125 -0.149 -0.206 -0.326 -0.102
    0.184 0.069 -0.070 -0.111 -0.295 -0.066 0.148 0.198 0.309 0.054
    0.335 -0.333 0.118 0.038 -0.207 -0.214 -0.044 -0.159 -0.146 0.225
    0.062 -0.261]
   [-0.194 0.127 0.220 0.212 -0.012 -0.001 -0.050 0.142 -0.057 -0.068
    0.068 0.123 -0.113 -0.267 -0.084 0.242 -0.016 0.008 0.028 -0.201
    -0.153 0.075 0.179 0.028 0.032 0.162 -0.146 0.129 0.026 0.177 0.188
    -0.344]
   [0.030 0.113 0.062 -0.072 -0.094 -0.031 -0.244 -0.062 -0.057 -0.010
    0.084 -0.103 -0.166 0.076 -0.205 -0.111 -0.143 0.000 -0.013 0.034
    0.043 -0.063 0.057 -0.155 -0.075 0.136 0.033 -0.160 0.109 -0.025
    -0.092 -0.082]
   [-0.077 0.020 -0.014 0.043 0.116 0.036 0.080 0.044 0.016 0.041 0.105
    -0.020 -0.016 0.030 0.115 0.097 -0.009 -0.070 -0.013 0.064 0.000
    -0.103 0.021 -0.073 -0.086 0.009 0.060 0.066 0.144 0.085 -0.054
    -0.054]
   [0.091 -0.016 -0.076 0.001 -0.105 0.022 -0.058 0.045 -0.102 -0.067
    0.063 -0.043 0.093 -0.110 0.138 0.147 0.023 0.112 -0.069 -0.032
    0.123 -0.089 -0.083 0.064 0.079 -0.113 0.013 -0.008 0.084 -0.027
    -0.068 -0.077]
   [0.234 0.214 0.173 -0.015 -0.015 0.123 -0.046 -0.047 0.095 0.028
    0.086 -0.088 -0.178 -0.062 -0.011 0.016 -0.128 -0.053 -0.082 0.151
    -0.256 0.053 0.094 -0.009 -0.054 0.049 -0.192 0.019 -0.028 0.090
    -0.048 -0.322]
   [0.183 0.237 -0.162 0.022 0.188 0.003 0.103 0.040 -0.091 0.236 0.030
    -0.088 -0.094 -0.173 -0.118 0.056 -0.003 0.161 -0.070 0.106 0.192
    -0.070 -0.043 0.071 -0.200 -0.033 -0.213 -0.044 0.129 -0.094 0.203
    -0.052]
   [0.051 -0.020 -0.089 -0.164 0.082 0.066 0.139 -0.050 0.083 0.094
    -0.122 -0.158 -0.077 -0.106 0.060 -0.099 0.105 -0.079 -0.111 -0.161
    -0.017 0.075 -0.008 0.093 -0.037 0.033 -0.007 0.125 0.088 0.065
    -0.080 -0.077]
   [0.059 -0.021 0.028 -0.006 0.026 0.060 -0.296 -0.112 -0.009 0.063
    -0.076 0.120 -0.042 -0.045 -0.067 -0.220 -0.191 0.107 0.158 0.091
    -0.230 -0.038 0.084 -0.128 0.100 -0.083 -0.047 -0.222 -0.062 0.117
    -0.174 -0.326]
   [-0.093 -0.233 -0.305 -0.097 0.063 -0.239 0.098 -0.135 0.084 0.052
    -0.015 0.091 -0.102 -0.007 -0.036 0.167 0.116 -0.067 0.067 -0.122
    0.212 -0.004 0.033 -0.018 -0.054 -0.284 0.024 0.037 0.013 0.059
    0.075 0.072]]

  [[0.039 -0.226 -0.068 -0.296 -0.334 0.102 -0.453 -0.081 -0.100 0.292
    -0.094 -0.020 -0.042 -0.057 -0.166 -0.016 -0.125 -0.021 0.158
    -0.016 -0.155 -0.030 0.034 -0.113 0.038 -0.223 0.010 -0.282 -0.022
    -0.012 -0.199 -0.238]
   [-0.234 0.105 0.110 0.043 -0.010 -0.220 -0.337 -0.453 0.015 -0.403
    -0.069 -0.272 0.335 -0.363 -0.429 -0.084 -0.209 -0.120 0.222 -0.034
    -0.101 -0.065 0.210 -0.229 -0.401 -0.066 -0.171 -0.559 0.022 -0.056
    0.270 -0.224]
   [0.171 0.055 -0.182 0.129 -0.065 -0.039 0.240 -0.121 0.084 -0.170
    -0.086 -0.262 -0.008 -0.198 0.186 0.155 -0.034 -0.013 -0.037 -0.102
    0.010 -0.087 -0.113 -0.076 -0.279 -0.043 0.169 -0.027 0.007 0.027
    -0.030 0.019]
   [-0.119 -0.120 -0.007 0.283 0.106 0.022 -0.063 0.033 -0.079 -0.243
    0.119 0.034 0.077 0.067 0.083 -0.053 0.117 -0.045 -0.170 0.112
    0.079 -0.082 0.022 0.109 0.059 0.176 0.010 -0.061 0.016 -0.107
    0.019 0.007]
   [0.032 -0.111 -0.306 0.077 0.051 -0.203 0.113 -0.007 -0.041 -0.246
    0.169 -0.075 0.058 -0.055 -0.128 -0.311 0.088 -0.225 -0.084 -0.111
    0.301 -0.111 -0.329 -0.173 -0.041 0.059 -0.058 -0.020 -0.039 -0.177
    -0.020 0.188]
   [0.335 0.199 -0.098 -0.093 0.210 0.089 0.164 -0.140 0.089 0.025
    -0.102 0.005 0.091 -0.211 0.003 -0.180 -0.382 -0.124 0.010 -0.277
    -0.279 0.083 -0.095 -0.461 0.085 -0.176 0.081 -0.147 -0.026 -0.259
    -0.193 0.016]
   [-0.190 -0.121 0.321 0.311 -0.271 0.103 -0.023 -0.259 -0.096 -0.185
    -0.023 -0.108 0.206 -0.073 -0.069 -0.012 0.176 0.200 0.176 0.162
    0.133 -0.151 -0.025 0.007 -0.254 0.003 -0.113 0.007 -0.242 0.233
    -0.154 -0.139]
   [-0.071 0.030 0.237 0.168 0.108 0.025 -0.139 -0.055 -0.094 -0.144
    -0.003 0.139 -0.078 -0.154 -0.142 0.084 0.038 -0.095 -0.043 0.166
    -0.061 0.020 0.071 -0.083 -0.066 -0.110 -0.028 -0.068 -0.079 0.169
    -0.075 -0.352]
   [-0.108 -0.021 0.024 -0.080 0.056 0.110 -0.157 0.102 0.072 0.061
    -0.122 0.010 -0.002 0.087 -0.049 -0.087 0.017 0.129 0.074 0.155
    0.019 0.048 0.059 0.121 0.119 0.020 0.024 -0.113 -0.132 0.106 0.099
    0.062]
   [-0.104 0.087 0.124 -0.043 -0.048 0.066 0.087 0.102 -0.143 0.069
    -0.092 -0.009 -0.024 -0.117 0.032 -0.025 0.056 0.037 0.015 0.063
    -0.024 -0.021 0.004 -0.063 0.063 -0.001 -0.116 -0.056 0.099 0.105
    0.064 0.121]
   [-0.173 -0.108 0.098 -0.118 -0.179 0.067 0.142 0.019 -0.106 -0.174
    0.087 0.028 -0.033 -0.099 0.066 -0.059 -0.054 0.095 -0.210 0.029
    0.111 -0.050 0.011 0.126 -0.026 0.099 -0.011 0.105 -0.061 0.094
    -0.097 -0.038]
   [-0.274 -0.155 0.011 -0.057 0.143 0.056 0.092 -0.035 0.003 -0.094
    0.097 0.108 0.111 -0.091 0.196 0.002 0.064 -0.009 0.064 0.091
    -0.136 0.104 0.124 0.252 0.072 -0.279 -0.104 0.162 -0.017 0.029
    0.131 -0.276]
   [-0.167 -0.337 -0.309 0.028 0.201 0.034 0.194 0.001 -0.017 -0.221
    -0.138 -0.055 0.159 -0.365 0.225 0.125 -0.001 0.048 -0.040 0.159
    0.002 -0.140 -0.121 0.214 -0.177 -0.099 0.024 0.199 0.148 0.048
    0.030 0.102]
   [0.060 -0.013 -0.140 0.025 0.013 -0.117 0.086 0.083 0.102 0.074
    -0.143 -0.146 -0.066 0.066 -0.030 0.040 -0.050 -0.002 0.030 -0.095
    0.109 -0.030 0.026 -0.088 0.064 0.069 -0.008 0.059 0.088 0.037
    -0.036 0.138]
   [-0.217 -0.089 0.101 0.114 -0.022 0.013 -0.017 0.028 -0.016 -0.112
    -0.111 -0.082 -0.083 0.031 0.145 -0.244 -0.097 -0.045 0.233 0.176
    0.067 0.001 0.016 0.053 -0.016 0.020 -0.007 -0.161 -0.155 0.117
    0.049 -0.370]
   [0.180 -0.146 -0.374 -0.119 -0.004 -0.025 -0.049 0.039 -0.073 0.098
    -0.135 0.121 -0.067 -0.064 -0.093 -0.019 -0.117 -0.059 -0.058 0.012
    0.179 -0.129 -0.155 0.068 0.033 0.105 0.024 -0.061 -0.048 0.054
    -0.195 0.051]]

  [[-0.063 -0.170 0.052 -0.136 -0.314 0.120 -0.213 -0.148 0.019 0.246
    -0.056 -0.052 -0.091 -0.109 0.174 -0.101 -0.175 0.004 0.135 0.342
    -0.081 0.008 0.024 0.104 -0.042 -0.214 0.057 -0.172 0.085 -0.094
    -0.225 -0.244]
   [-0.023 0.035 0.291 -0.240 0.024 -0.146 -0.202 -0.312 -0.031 -0.183
    0.172 -0.160 -0.328 -0.602 -0.234 0.023 -0.129 -0.314 0.304 -0.097
    0.036 -0.113 -0.398 -0.299 -0.132 -0.117 -0.101 -0.316 -0.203
    -0.263 -0.208 -0.183]
   [-0.213 0.138 -0.022 0.018 -0.186 -0.130 -0.005 0.107 -0.070 -0.022
    -0.101 -0.320 -0.155 -0.114 -0.153 0.112 0.164 0.157 0.015 -0.094
    -0.032 0.016 -0.047 -0.052 -0.103 0.130 0.085 0.104 0.106 -0.033
    -0.228 0.002]
   [0.140 -0.092 -0.174 0.098 0.070 -0.059 0.001 0.069 -0.091 -0.081
    0.123 0.072 -0.001 0.167 -0.040 -0.093 -0.068 -0.090 -0.272 -0.108
    -0.182 0.177 0.128 0.010 0.076 -0.101 -0.285 0.070 -0.149 -0.030
    0.239 0.050]
   [-0.180 -0.193 -0.082 0.176 0.083 -0.270 -0.153 -0.096 0.032 -0.081
    -0.066 -0.118 0.099 0.117 -0.223 -0.206 -0.083 -0.161 -0.066 -0.235
    0.201 0.112 0.212 0.133 -0.017 0.112 -0.083 0.045 0.132 -0.246
    0.134 0.016]
   [-0.255 0.137 0.083 -0.261 -0.170 0.216 0.079 0.102 0.038 0.143
    -0.057 -0.117 0.362 -0.011 0.096 -0.135 -0.218 -0.141 0.056 -0.074
    -0.154 0.096 -0.030 0.090 0.123 -0.185 0.064 -0.202 0.130 -0.235
    -0.178 -0.104]
   [-0.179 -0.182 0.357 0.162 -0.288 0.030 0.309 -0.057 0.045 -0.518
    0.111 -0.138 0.267 -0.117 0.204 0.128 0.240 0.263 0.028 0.207 0.260
    0.168 0.129 0.042 -0.129 -0.065 -0.157 -0.038 -0.057 0.181 -0.074
    0.062]
   [0.022 0.157 0.163 0.021 0.059 0.201 0.045 0.083 0.098 -0.067 0.162
    0.084 -0.209 -0.169 0.079 0.022 -0.054 -0.089 0.136 0.198 0.127
    -0.135 -0.334 -0.100 -0.120 0.090 0.052 -0.196 -0.153 0.055 -0.256
    -0.245]
   [0.063 0.021 -0.087 -0.054 -0.006 0.068 -0.039 -0.034 0.128 0.020
    -0.021 0.019 -0.128 0.165 -0.003 -0.018 0.125 0.169 0.093 0.046
    -0.145 -0.099 0.034 -0.130 -0.036 0.003 -0.061 0.114 0.018 -0.083
    0.010 -0.102]
   [-0.087 -0.008 0.009 0.053 0.085 0.102 -0.056 0.041 0.058 -0.117
    -0.081 -0.072 -0.006 0.035 -0.016 -0.052 -0.066 -0.034 -0.012
    -0.129 0.019 -0.133 0.036 0.107 0.057 0.056 0.014 -0.033 -0.071
    0.086 -0.157 -0.026]
   [0.008 -0.024 -0.121 -0.076 -0.154 -0.018 -0.098 0.087 -0.033 -0.147
    -0.016 0.088 0.104 0.109 0.022 -0.086 -0.077 0.034 -0.145 -0.087
    -0.024 0.099 0.004 -0.035 -0.034 -0.030 -0.066 -0.094 0.063 -0.067
    -0.011 0.110]
   [0.113 0.036 0.086 -0.205 -0.093 -0.017 0.055 0.103 -0.028 0.019
    0.058 0.098 -0.187 -0.097 -0.013 0.076 -0.028 -0.037 0.134 -0.147
    0.078 -0.148 -0.228 -0.202 -0.076 0.090 0.193 0.031 -0.156 0.073
    -0.096 -0.152]
   [0.171 0.205 -0.182 -0.188 -0.017 0.004 0.154 -0.036 -0.042 -0.029
    -0.067 -0.105 -0.019 -0.275 -0.091 0.236 0.111 0.046 -0.155 -0.022
    0.124 0.093 -0.187 -0.345 -0.144 0.112 0.084 -0.076 -0.063 -0.083
    -0.118 -0.106]
   [0.009 0.080 -0.140 0.045 -0.154 -0.077 -0.160 0.041 0.118 -0.044
    -0.059 0.006 -0.047 0.081 -0.047 0.033 0.025 0.127 -0.072 0.083
    -0.041 0.016 -0.015 0.040 0.100 0.021 0.064 0.000 0.072 -0.073
    0.053 0.108]
   [0.001 0.022 -0.093 0.076 -0.028 -0.091 0.427 0.015 0.050 -0.264
    -0.045 -0.008 -0.052 0.198 0.165 -0.137 -0.026 0.110 0.094 0.238
    0.032 -0.056 -0.243 -0.056 0.013 -0.110 -0.169 0.004 -0.102 0.057
    0.237 -0.092]
   [-0.012 -0.088 -0.273 -0.030 -0.083 -0.079 -0.060 -0.040 0.027 0.108
    -0.100 -0.097 -0.146 0.000 0.083 -0.043 -0.130 -0.015 0.017 -0.022
    0.142 -0.020 -0.093 -0.117 -0.029 0.247 0.050 -0.057 0.002 -0.065
    -0.286 0.044]]]


 [[[-0.049 -0.469 -0.062 0.043 -0.036 -0.121 0.222 0.116 0.008 0.109
    -0.079 0.031 0.025 0.034 0.283 0.103 0.183 -0.115 0.085 0.042 0.145
    0.040 0.026 0.130 -0.046 -0.201 0.066 -0.006 -0.094 0.033 0.019
    0.011]
   [0.132 0.080 0.014 -0.025 -0.101 -0.455 -0.057 -0.153 -0.037 0.121
    0.057 -0.029 0.158 -0.285 0.009 0.063 -0.337 0.075 0.197 -0.032
    -0.236 0.007 0.157 -0.089 -0.296 -0.140 -0.294 -0.205 -0.101 -0.072
    0.154 -0.048]
   [-0.118 0.005 -0.203 -0.047 -0.011 0.069 -0.156 0.052 -0.101 -0.124
    -0.030 -0.403 -0.044 -0.146 -0.029 0.056 -0.038 -0.038 0.045 0.083
    0.043 -0.067 -0.036 -0.032 -0.197 -0.145 -0.090 0.036 0.082 -0.178
    -0.015 0.039]
   [0.180 -0.077 0.106 0.084 -0.224 0.058 -0.151 -0.073 -0.109 0.096
    0.128 0.041 -0.096 -0.057 -0.194 -0.114 -0.184 0.058 -0.167 0.061
    -0.120 0.004 -0.001 -0.170 0.069 0.100 0.020 -0.090 0.125 -0.116
    0.001 0.075]
   [-0.084 -0.239 0.092 0.171 0.045 0.236 0.007 -0.070 -0.002 0.050
    0.116 0.074 0.139 -0.079 -0.138 -0.095 -0.135 -0.044 0.166 0.171
    -0.051 -0.172 -0.075 -0.062 -0.015 0.153 0.178 -0.085 0.077 -0.312
    -0.124 0.276]
   [-0.115 -0.171 -0.148 0.196 0.222 -0.142 -0.061 -0.246 -0.089 -0.174
    -0.102 0.024 0.045 -0.337 -0.069 -0.029 -0.335 -0.039 0.119 0.175
    -0.094 -0.095 -0.007 0.254 -0.217 -0.112 -0.003 -0.036 0.010 -0.250
    0.189 -0.164]
   [-0.045 -0.104 0.085 0.324 -0.024 -0.058 -0.337 -0.162 -0.219 -0.230
    -0.278 -0.315 0.053 -0.117 -0.383 0.012 -0.010 0.217 0.134 -0.216
    0.160 -0.172 -0.063 0.079 -0.407 -0.105 -0.096 -0.299 0.132 0.171
    -0.055 0.107]
   [-0.075 0.078 0.035 0.123 -0.025 -0.256 0.052 -0.023 -0.141 -0.008
    -0.073 -0.120 0.161 -0.314 0.040 0.220 -0.064 0.143 0.126 -0.107
    0.207 0.010 0.021 0.206 -0.047 -0.111 -0.250 0.095 -0.060 0.148
    0.187 -0.089]
   [-0.056 0.155 0.062 -0.152 -0.097 -0.010 -0.090 0.088 -0.064 -0.013
    -0.027 0.066 -0.187 0.134 -0.005 -0.135 -0.114 -0.148 -0.159 -0.303
    0.031 0.133 0.058 -0.101 0.138 0.065 -0.020 -0.158 -0.004 0.080
    -0.071 -0.034]
   [0.061 -0.115 -0.044 -0.034 0.071 -0.150 0.080 -0.044 -0.040 -0.027
    -0.073 0.084 0.025 0.027 -0.084 0.001 -0.061 0.023 0.025 -0.090
    0.025 -0.099 0.002 0.006 0.065 -0.106 0.045 -0.082 0.110 -0.024
    -0.096 -0.120]
   [0.109 0.107 -0.121 -0.033 0.007 0.005 0.141 0.097 -0.076 0.079
    0.008 -0.034 0.113 0.017 -0.045 0.149 0.076 0.071 -0.088 0.019
    0.026 0.075 -0.129 -0.041 0.049 0.114 0.041 0.091 0.116 -0.017
    0.004 0.064]
   [-0.040 0.070 0.054 -0.108 -0.082 -0.154 0.006 -0.026 0.020 0.144
    0.019 -0.108 -0.097 -0.073 -0.039 0.173 -0.135 0.033 -0.040 -0.055
    0.099 0.031 0.083 -0.099 0.138 -0.152 -0.155 0.105 -0.023 0.141
    0.158 -0.029]
   [0.057 0.279 -0.037 0.117 -0.089 0.104 -0.191 -0.019 0.058 0.241
    -0.091 0.013 -0.063 -0.030 -0.356 0.224 -0.124 0.089 0.022 0.046
    0.022 0.106 -0.081 0.087 -0.214 0.064 -0.246 -0.008 -0.015 -0.003
    -0.003 -0.073]
   [0.102 0.059 0.061 -0.068 0.089 0.037 0.075 -0.043 0.036 -0.083
    -0.128 -0.024 0.106 0.095 0.094 -0.008 -0.041 -0.151 -0.184 0.042
    0.030 0.010 -0.094 0.044 0.056 0.128 0.098 0.076 -0.027 -0.159
    -0.007 0.074]
   [0.120 0.156 -0.195 0.069 0.036 -0.280 -0.302 0.076 -0.131 -0.124
    0.018 0.052 0.051 0.073 -0.119 -0.223 -0.276 0.108 0.037 -0.142
    0.046 -0.082 0.084 -0.077 0.145 0.018 -0.120 -0.258 -0.128 0.059
    -0.188 -0.076]
   [0.008 -0.109 -0.100 -0.035 0.144 0.161 -0.094 -0.031 0.138 0.058
    0.048 -0.034 0.128 -0.044 0.049 0.015 0.007 0.032 -0.121 0.110
    -0.066 -0.166 -0.219 0.080 -0.032 -0.064 -0.108 -0.039 0.069 -0.141
    0.095 0.194]]

  [[0.069 -0.239 -0.135 -0.255 -0.124 -0.093 0.037 0.029 -0.071 0.113
    -0.055 0.119 -0.124 -0.125 -0.059 0.090 -0.017 -0.090 -0.005 -0.273
    0.185 -0.084 -0.145 -0.082 0.098 -0.010 -0.058 -0.075 -0.022 0.026
    -0.257 0.063]
   [0.031 0.017 -0.260 -0.109 0.068 -0.274 -0.279 -0.201 -0.108 -0.148
    -0.005 -0.114 0.329 0.028 -0.067 -0.078 -0.233 -0.115 0.158 -0.302
    0.175 -0.102 -0.298 0.159 -0.496 -0.059 -0.162 -0.313 -0.204 -0.004
    0.065 0.125]
   [-0.007 0.097 -0.022 0.029 -0.024 0.099 0.006 -0.004 0.068 -0.038
    -0.121 -0.139 -0.134 -0.189 0.001 0.053 0.003 -0.016 -0.005 0.090
    0.062 -0.110 -0.185 0.041 -0.101 0.110 -0.067 -0.007 -0.030 0.032
    -0.176 0.048]
   [-0.194 -0.058 0.026 0.213 0.040 -0.095 -0.165 -0.106 -0.128 -0.247
    0.112 -0.113 -0.025 0.059 -0.110 -0.091 -0.094 0.024 -0.076 -0.015
    -0.184 0.073 0.239 0.085 0.054 -0.134 0.029 -0.040 0.124 -0.151
    0.034 -0.016]
   [0.088 0.041 0.096 0.114 0.034 0.220 -0.044 0.032 0.104 0.034 0.077
    0.119 0.118 0.127 0.036 -0.236 0.074 -0.179 -0.037 -0.025 -0.514
    0.049 0.041 -0.160 0.079 0.121 0.065 -0.055 0.012 -0.364 -0.010
    0.223]
   [0.261 0.159 0.008 -0.294 0.134 -0.057 0.172 -0.146 -0.042 -0.228
    -0.059 -0.008 -0.171 -0.164 -0.061 -0.099 -0.369 0.010 0.211 0.059
    -0.053 -0.089 -0.174 -0.287 -0.297 -0.125 0.049 -0.231 -0.045
    -0.305 0.005 -0.007]
   [-0.137 -0.233 -0.038 0.378 -0.272 -0.191 -0.190 -0.295 -0.316
    -0.389 -0.224 -0.236 0.026 -0.120 -0.370 0.033 0.038 0.340 0.111
    0.001 0.004 0.020 0.105 -0.021 -0.337 -0.122 -0.127 -0.231 -0.022
    0.019 -0.093 0.134]
   [0.056 0.127 -0.078 0.041 0.065 -0.290 0.034 -0.006 -0.157 -0.152
    0.057 0.006 0.140 -0.173 -0.209 -0.021 -0.109 -0.135 0.108 -0.274
    0.239 0.005 -0.166 -0.037 0.003 0.126 0.126 0.001 -0.098 0.114
    -0.053 0.013]
   [-0.078 -0.043 0.003 -0.032 -0.034 -0.139 -0.329 0.074 -0.010 0.056
    -0.075 -0.008 0.068 0.136 -0.176 -0.012 -0.100 -0.002 -0.104 -0.168
    -0.097 0.066 0.054 0.063 -0.025 -0.201 0.036 0.003 -0.042 0.044
    -0.071 -0.062]
   [0.000 0.036 0.101 -0.112 0.089 -0.054 -0.035 0.021 -0.141 -0.116
    -0.034 -0.048 0.103 0.062 0.053 -0.053 -0.058 0.025 0.005 0.014
    -0.114 -0.079 -0.015 0.005 -0.088 -0.000 -0.140 -0.117 0.056 0.097
    -0.115 0.034]
   [-0.162 -0.151 0.011 -0.085 -0.148 -0.132 -0.027 0.032 -0.060 -0.059
    0.088 -0.014 0.000 0.013 0.175 0.047 0.000 -0.055 -0.282 0.072
    -0.050 -0.032 0.034 0.053 -0.003 -0.072 -0.109 -0.028 -0.005 -0.050
    -0.084 0.139]
   [-0.160 -0.199 -0.275 -0.029 0.077 -0.139 0.019 0.080 0.029 -0.102
    -0.037 0.104 0.171 -0.123 0.124 0.115 -0.179 -0.029 0.016 0.110
    0.195 0.022 -0.092 0.248 0.077 -0.089 0.067 0.149 -0.133 -0.004
    -0.027 0.020]
   [-0.105 -0.230 -0.097 0.039 0.195 0.172 0.105 0.027 -0.071 0.009
    0.055 0.220 0.016 -0.218 0.035 0.058 -0.193 -0.099 -0.141 0.158
    0.015 -0.167 -0.175 0.162 -0.134 0.156 0.121 0.206 -0.123 0.095
    0.112 -0.091]
   [-0.094 0.102 -0.033 0.017 0.022 -0.025 0.070 0.010 0.107 0.096
    -0.050 -0.062 -0.134 0.093 0.008 -0.089 0.023 0.002 -0.209 -0.162
    -0.182 0.103 0.147 -0.039 0.138 -0.038 0.029 0.102 0.159 -0.054
    -0.077 -0.059]
   [-0.233 -0.035 -0.041 -0.174 -0.167 -0.324 -0.302 0.068 -0.056
    -0.204 -0.060 -0.031 0.078 -0.026 -0.190 -0.248 -0.358 0.177 0.166
    0.001 0.062 -0.099 0.098 0.132 0.080 0.011 -0.230 -0.111 -0.114
    0.086 0.060 0.057]
   [-0.007 -0.211 -0.010 0.061 0.083 0.144 -0.005 0.038 0.085 -0.019
    -0.074 -0.025 0.185 -0.031 -0.019 -0.061 -0.043 -0.063 -0.169
    -0.039 -0.016 -0.138 -0.022 -0.023 -0.150 0.122 0.072 0.020 -0.079
    -0.053 -0.173 0.061]]

  [[-0.041 -0.188 -0.162 -0.104 -0.151 0.030 -0.302 0.080 -0.094 0.089
    0.075 0.091 -0.063 0.031 -0.074 -0.110 -0.145 -0.022 0.109 -0.112
    0.204 0.059 -0.057 0.047 -0.089 -0.101 0.040 -0.350 0.055 0.023
    -0.333 -0.061]
   [0.044 -0.070 -0.298 -0.151 0.107 -0.110 -0.125 -0.259 0.105 -0.430
    0.170 0.040 -0.195 -0.453 -0.108 -0.068 -0.204 -0.260 0.294 -0.260
    -0.116 -0.048 -0.746 0.017 -0.340 0.164 -0.113 -0.249 -0.592 -0.260
    -0.227 0.010]
   [-0.058 0.011 0.054 0.194 -0.197 -0.038 0.168 -0.105 -0.030 -0.066
    -0.086 -0.351 0.047 0.081 -0.017 0.133 0.200 0.089 -0.177 0.049
    -0.185 0.047 0.011 0.095 -0.193 0.118 -0.029 -0.063 0.018 -0.038
    -0.090 0.044]
   [0.184 -0.029 0.035 -0.028 -0.052 -0.017 -0.075 -0.091 -0.082 -0.242
    -0.015 -0.075 -0.008 0.060 -0.058 -0.230 -0.034 -0.012 -0.016 0.059
    -0.166 -0.044 0.092 -0.071 -0.087 -0.075 -0.223 0.115 0.036 -0.197
    0.104 0.109]
   [-0.055 -0.102 0.031 0.104 0.010 0.208 -0.013 0.020 -0.064 -0.135
    -0.100 -0.007 -0.047 0.138 0.129 -0.071 0.062 -0.139 -0.002 -0.242
    -0.373 0.128 0.090 0.035 0.015 -0.076 -0.184 -0.102 0.072 -0.468
    0.005 0.053]
   [-0.259 0.034 -0.147 -0.445 -0.207 0.019 0.283 -0.064 0.066 0.068
    -0.147 -0.068 -0.100 0.067 0.034 0.010 -0.100 0.032 0.072 0.053
    -0.082 0.031 -0.132 0.220 0.038 -0.177 0.018 -0.492 -0.012 -0.262
    -0.058 -0.088]
   [-0.149 -0.202 0.109 0.128 -0.246 -0.057 -0.053 -0.063 -0.412 -0.279
    0.048 -0.406 0.314 -0.154 -0.279 0.107 0.117 0.355 0.024 0.034
    0.070 -0.269 -0.065 0.064 -0.337 -0.209 -0.084 -0.265 0.084 0.012
    -0.125 0.320]
   [-0.218 0.040 -0.204 0.153 0.025 -0.196 0.012 -0.000 0.023 -0.064
    0.084 0.098 -0.025 -0.196 -0.260 -0.083 -0.057 -0.056 0.086 0.003
    0.117 -0.057 -0.143 -0.036 -0.069 0.117 0.136 -0.084 -0.217 -0.031
    -0.349 -0.001]
   [0.051 -0.139 -0.108 0.065 0.060 -0.095 -0.221 0.091 -0.021 -0.065
    0.039 -0.154 0.031 -0.032 -0.104 0.044 -0.077 0.135 -0.096 0.097
    0.022 -0.098 -0.130 0.091 -0.025 -0.077 0.017 0.089 0.099 -0.138
    0.003 0.000]
   [-0.025 0.012 0.034 -0.090 -0.048 0.032 -0.018 0.097 -0.087 -0.023
    -0.011 -0.020 0.099 -0.099 0.113 0.112 -0.134 0.001 0.096 0.028
    0.058 0.004 0.075 0.089 -0.120 0.023 -0.004 0.104 0.043 -0.109
    0.113 0.063]
   [0.076 0.051 0.016 0.012 -0.038 -0.120 0.084 0.031 -0.056 -0.131
    0.061 -0.031 -0.087 -0.025 -0.066 0.004 0.161 0.130 -0.277 0.050
    0.093 0.044 0.036 -0.116 0.133 -0.104 -0.091 0.082 0.086 -0.042
    0.106 -0.023]
   [0.071 0.031 -0.223 -0.258 -0.047 -0.211 0.018 -0.081 0.086 -0.233
    0.060 0.112 -0.116 0.111 -0.117 -0.087 -0.114 -0.102 -0.068 0.144
    -0.070 -0.142 -0.252 -0.125 -0.039 0.166 0.133 0.023 -0.145 0.064
    -0.193 0.175]
   [0.100 0.204 0.150 -0.127 0.058 0.122 0.233 0.029 0.070 -0.082 0.084
    0.157 0.073 -0.047 0.191 0.166 -0.014 -0.067 -0.119 0.282 -0.185
    -0.005 0.090 -0.233 -0.019 0.026 0.008 0.036 -0.139 0.039 -0.214
    0.036]
   [0.023 0.027 -0.055 0.021 -0.176 0.143 -0.050 0.076 -0.034 0.098
    -0.034 -0.031 0.085 0.031 -0.010 0.042 -0.048 0.055 -0.077 -0.076
    -0.010 -0.077 0.082 -0.101 0.063 -0.108 0.053 0.076 -0.001 -0.086
    -0.080 0.139]
   [0.141 -0.055 -0.308 -0.110 0.001 -0.165 -0.026 -0.043 0.055 -0.313
    -0.137 -0.081 0.075 0.152 -0.107 -0.104 0.012 0.075 0.143 0.129
    -0.019 -0.065 -0.131 -0.069 -0.083 -0.030 -0.206 -0.092 -0.134
    0.108 0.271 0.194]
   [-0.165 -0.018 -0.038 -0.065 0.012 0.139 0.046 -0.135 0.062 0.134
    0.019 -0.044 0.090 0.026 -0.005 -0.056 0.051 -0.229 -0.186 -0.054
    -0.212 0.026 0.223 -0.060 0.013 0.006 0.127 -0.039 0.068 -0.012
    -0.103 -0.052]]]]
%

[0.031 0.060 -0.009 -0.036 0.096 0.020 -0.003 0.046 0.060 -0.005 -0.009
 0.100 -0.038 0.100 0.043 -0.014 -0.041 0.016 0.016 -0.029 0.002 0.085
 0.002 0.028 -0.135 0.022 0.082 0.056 0.029 0.012 0.071 0.019]
%
=========================================================================================================
