[[-0.263 0.034 -0.010 -0.290 -0.112 0.072 0.144 0.345 0.350 -0.051]
 [-0.033 -0.127 -0.121 0.121 -0.118 -0.130 0.077 0.044 -0.096 -0.086]
 [-0.091 -0.082 0.037 0.033 0.035 -0.128 -0.069 -0.060 0.113 0.027]
 [0.066 0.059 0.126 -0.102 -0.098 -0.118 0.073 -0.065 -0.013 0.035]
 [-0.130 0.019 -0.126 -0.002 0.034 0.024 -0.016 0.110 0.030 -0.007]
 [-0.120 -0.293 0.269 0.185 -0.014 -0.132 -0.249 -0.021 -0.080 0.221]
 [0.117 -0.130 -0.052 0.131 -0.027 0.085 0.110 0.114 0.131 -0.140]
 [-0.095 0.004 0.094 0.028 -0.126 -0.091 -0.140 0.082 0.093 0.095]
 [0.017 0.127 -0.104 0.072 -0.148 0.091 0.049 0.135 0.099 0.140]
 [0.265 -0.110 -0.119 -0.116 0.179 -0.138 -0.058 0.122 -0.031 -0.115]
 [0.099 -0.024 0.150 0.069 -0.031 -0.125 -0.074 -0.131 0.132 0.122]
 [-0.081 -0.052 0.089 0.041 0.053 -0.063 -0.014 -0.065 0.068 -0.004]
 [-0.113 -0.013 0.138 -0.040 -0.023 0.020 0.027 0.122 -0.077 -0.106]
 [-0.127 0.142 -0.040 0.022 -0.092 0.062 0.142 -0.047 0.018 -0.085]
 [0.088 0.004 0.062 0.140 0.049 -0.121 -0.106 -0.065 0.047 0.142]
 [-0.021 0.082 -0.036 0.064 -0.088 -0.092 -0.060 0.078 -0.029 0.049]
 [-0.086 0.076 0.114 0.114 0.025 -0.072 0.012 0.116 -0.098 0.027]
 [-0.072 0.040 0.072 0.111 -0.100 0.050 0.074 -0.051 0.137 0.019]
 [0.111 0.296 0.040 -0.234 0.169 -0.145 -0.039 0.247 -0.342 -0.381]
 [-0.077 -0.461 0.106 0.096 0.103 -0.154 0.084 0.076 -0.388 -0.127]
 [-0.374 0.082 0.248 -0.057 0.078 -0.119 0.162 0.228 -0.270 -0.014]
 [0.086 -0.182 -0.285 0.122 -0.345 0.320 -0.064 -0.323 0.197 0.013]
 [0.051 0.032 -0.073 -0.149 -0.036 -0.104 0.039 0.143 0.027 -0.023]
 [-0.020 -0.028 -0.104 0.009 0.011 0.046 -0.046 0.095 0.056 0.124]
 [-0.045 -0.100 0.022 0.066 -0.038 -0.012 0.075 -0.119 -0.131 0.085]
 [0.160 -0.129 -0.064 0.156 0.219 0.127 0.191 -0.297 0.185 -0.375]
 [-0.327 -0.067 -0.020 -0.039 0.031 0.077 0.098 0.120 0.084 -0.476]
 [0.036 0.070 0.114 -0.093 0.027 -0.149 -0.032 0.101 -0.034 0.086]
 [0.011 0.134 0.046 0.128 0.003 0.003 -0.095 0.105 -0.156 -0.074]
 [-0.134 -0.039 -0.091 -0.075 -0.043 0.091 -0.057 0.132 -0.017 0.097]
 [-0.130 0.158 -0.395 0.176 0.078 -0.245 -0.501 -0.010 0.220 0.125]
 [0.242 -0.262 0.079 -0.435 0.302 -0.282 0.150 -0.067 -0.074 -0.145]
 [-0.119 -0.068 -0.123 0.070 0.095 0.086 -0.000 0.000 0.138 -0.117]
 [0.128 0.058 -0.143 0.100 0.054 -0.105 0.098 0.041 -0.135 0.060]
 [0.152 0.149 0.121 0.170 0.129 -0.099 -0.558 0.179 0.049 -0.098]
 [-0.487 -0.197 -0.042 -0.078 0.200 0.174 0.179 -0.081 -0.375 0.156]
 [-0.221 0.312 0.202 0.071 0.409 -0.122 -0.395 -0.409 0.007 -0.249]
 [-0.112 0.061 0.143 -0.023 -0.082 0.123 0.036 0.002 -0.097 0.009]
 [-0.013 0.020 -0.145 0.083 0.111 -0.144 -0.098 -0.069 0.120 -0.057]
 [-0.055 -0.061 0.143 0.128 0.042 -0.079 0.007 0.045 -0.073 0.091]
 [0.095 -0.011 0.108 -0.085 -0.049 -0.042 0.022 -0.128 -0.027 0.141]
 [0.088 -0.063 -0.088 0.027 0.098 -0.139 -0.118 0.115 -0.071 0.035]
 [-0.030 -0.041 -0.056 0.142 -0.059 0.117 -0.026 -0.130 -0.093 0.016]
 [0.124 0.038 0.090 -0.055 0.130 -0.010 -0.055 0.104 -0.089 0.028]
 [0.358 -0.032 0.026 0.114 0.157 0.184 -0.002 -0.171 -0.259 -0.546]
 [-0.053 0.037 0.071 -0.005 -0.038 0.089 0.121 0.060 -0.021 -0.134]
 [0.488 -0.469 0.081 0.054 -0.460 0.077 0.014 -0.358 -0.279 -0.079]
 [-0.068 -0.013 -0.125 0.005 -0.019 -0.023 0.034 0.033 -0.120 0.011]
 [0.046 -0.110 0.131 0.118 0.132 -0.119 -0.059 0.057 -0.065 -0.131]
 [-0.261 -0.343 0.228 0.020 -0.011 0.216 0.018 -0.267 0.301 0.055]
 [0.095 0.120 0.075 -0.039 0.101 0.063 -0.071 0.087 0.037 -0.099]
 [0.049 0.111 -0.074 0.038 0.101 0.106 -0.021 0.133 -0.125 -0.119]
 [0.122 0.148 -0.036 -0.149 -0.173 -0.265 0.109 0.125 0.174 0.171]
 [-0.072 -0.279 0.097 -0.091 -0.229 0.208 0.103 -0.123 -0.018 -0.466]
 [0.119 -0.056 -0.022 0.113 -0.005 -0.122 -0.084 -0.005 -0.095 0.027]
 [0.061 -0.018 -0.106 0.122 0.124 -0.101 0.006 -0.128 -0.050 0.064]
 [-0.033 -0.034 0.031 -0.024 0.039 -0.135 -0.097 -0.125 -0.084 0.116]
 [-0.106 -0.037 0.036 0.096 0.126 -0.100 0.011 -0.137 -0.135 0.042]
 [0.041 -0.033 0.109 -0.103 0.049 0.102 0.137 0.110 0.031 -0.066]
 [-0.088 -0.006 -0.075 -0.134 -0.062 -0.005 0.064 0.108 0.121 -0.143]
 [0.338 -0.127 0.322 -0.057 0.324 -0.124 -0.368 -0.138 -0.577 0.181]
 [0.028 0.116 -0.084 -0.005 0.111 0.037 0.144 0.138 0.125 -0.072]
 [0.022 -0.013 0.089 0.136 -0.013 -0.010 0.087 -0.048 -0.069 0.138]
 [-0.240 0.145 0.089 -0.046 0.027 0.143 -0.097 -0.038 -0.282 -0.285]
 [-0.067 0.080 0.151 0.105 0.039 0.019 -0.156 -0.026 -0.265 0.047]
 [-0.117 0.114 -0.006 0.005 0.044 -0.019 -0.115 0.038 0.021 0.098]
 [0.050 0.077 0.027 0.098 -0.007 -0.111 -0.089 0.089 -0.050 -0.041]
 [0.085 0.075 -0.043 0.055 -0.000 0.111 -0.026 0.144 -0.027 -0.037]
 [0.091 0.076 -0.040 -0.022 -0.016 0.094 0.041 -0.089 0.118 -0.058]
 [0.154 0.233 0.150 -0.155 0.100 0.050 -0.039 -0.252 -0.340 0.100]
 [-0.137 0.090 0.092 0.135 0.139 -0.061 0.109 -0.074 -0.037 0.144]
 [0.104 -0.061 0.015 -0.022 -0.147 -0.114 -0.057 -0.011 -0.135 -0.120]
 [0.150 0.066 0.059 -0.023 0.049 0.003 0.005 0.001 0.001 0.091]
 [0.210 0.057 0.034 -0.066 -0.081 -0.069 -0.081 0.264 -0.292 -0.224]
 [-0.172 -0.144 -0.313 -0.085 0.437 -0.094 -0.442 0.175 0.265 -0.340]
 [0.109 0.151 0.156 0.082 -0.030 -0.120 0.138 0.077 -0.113 0.058]
 [-0.132 -0.210 0.063 0.137 -0.037 0.160 -0.191 0.072 0.094 -0.000]
 [-0.075 -0.038 -0.104 -0.101 0.017 0.110 0.069 0.140 0.072 -0.015]
 [-0.019 -0.088 -0.053 -0.124 0.079 -0.033 0.105 -0.117 -0.089 -0.113]
 [0.164 -0.398 0.157 0.221 -0.413 0.235 -0.076 -0.372 0.207 0.050]
 [-0.102 0.051 -0.011 0.063 -0.113 0.127 0.139 0.064 -0.092 -0.076]
 [-0.071 -0.195 -0.082 0.009 -0.281 -0.411 0.317 0.574 -0.135 -0.175]
 [-0.202 -0.280 0.289 -0.093 0.139 0.436 -0.307 -0.322 0.128 -0.214]
 [0.275 0.159 0.312 0.234 -0.198 -0.378 -0.041 -0.259 -0.320 -0.301]
 [0.230 -0.222 0.407 -0.305 0.014 -0.225 0.067 0.144 -0.233 0.104]
 [0.040 -0.039 -0.068 -0.083 0.037 -0.141 -0.001 0.014 -0.034 -0.124]
 [-0.136 0.007 0.075 0.035 0.100 -0.298 -0.521 0.137 0.036 0.234]
 [0.080 0.036 -0.103 0.041 0.136 0.093 -0.022 0.133 0.135 -0.097]
 [0.132 -0.132 -0.151 0.037 0.095 -0.093 0.099 0.045 0.028 -0.081]
 [0.004 0.076 0.008 0.133 -0.088 -0.049 0.028 0.087 -0.061 -0.014]
 [-0.029 -0.108 0.041 0.011 -0.040 0.059 0.145 0.122 0.050 -0.031]
 [-0.046 0.089 0.088 0.024 -0.095 -0.104 0.091 0.043 0.047 -0.123]
 [0.082 0.111 0.165 0.129 -0.247 -0.143 0.047 0.009 -0.225 -0.105]
 [0.117 0.097 0.127 -0.078 0.056 -0.107 -0.078 -0.031 0.079 0.017]
 [0.174 0.035 -0.476 -0.281 0.457 0.163 -0.382 0.041 0.164 -0.010]
 [-0.010 -0.024 -0.098 0.004 -0.093 0.083 0.034 -0.068 0.056 0.099]
 [0.056 0.105 -0.039 -0.103 0.038 0.129 -0.146 -0.091 -0.112 0.046]
 [-0.191 0.255 0.363 -0.382 -0.263 -0.227 -0.047 -0.445 0.136 0.217]
 [-0.527 -0.117 0.115 0.086 0.328 -0.238 0.121 -0.087 0.099 -0.199]
 [-0.131 0.001 0.130 0.065 0.014 -0.024 0.035 0.013 -0.047 -0.050]
 [0.131 -0.076 0.046 -0.118 0.108 0.093 0.004 -0.029 -0.070 0.100]
 [0.197 0.178 -0.246 -0.153 0.050 -0.279 0.072 -0.037 -0.045 0.023]
 [-0.111 -0.005 0.031 -0.151 0.076 -0.009 0.075 0.125 -0.051 -0.086]
 [-0.133 0.014 -0.064 0.106 -0.129 -0.063 -0.005 0.006 0.017 -0.141]
 [0.132 0.088 0.066 -0.016 -0.113 -0.084 0.080 -0.135 -0.155 -0.087]
 [0.121 -0.136 0.007 0.035 0.141 0.095 0.024 -0.006 -0.080 -0.038]
 [0.014 -0.118 0.110 -0.058 0.011 0.125 -0.051 0.062 -0.149 0.064]
 [-0.072 0.127 -0.328 -0.004 0.130 -0.012 -0.381 0.024 -0.290 0.286]
 [0.305 -0.446 -0.267 -0.044 0.157 0.031 0.190 0.278 -0.185 -0.030]
 [0.133 0.048 -0.046 0.006 -0.065 -0.040 -0.021 -0.055 0.098 -0.101]
 [0.076 0.072 -0.081 -0.063 0.008 -0.002 -0.103 -0.076 -0.015 0.093]
 [0.099 -0.063 -0.014 -0.140 -0.059 0.102 -0.030 0.111 -0.066 -0.049]
 [0.003 0.124 0.052 0.111 -0.309 -0.092 0.428 -0.345 0.017 -0.404]
 [-0.142 0.070 -0.090 -0.076 -0.102 -0.034 0.114 0.019 0.014 0.116]
 [-0.123 0.150 0.260 -0.182 -0.270 0.038 -0.236 0.028 -0.061 0.140]
 [0.010 -0.142 -0.005 -0.034 0.034 0.107 -0.079 0.112 -0.084 -0.026]
 [0.147 0.089 -0.134 0.110 0.007 0.143 -0.007 -0.022 -0.024 0.070]
 [-0.019 -0.027 0.140 -0.102 0.063 -0.069 0.089 0.129 0.114 0.142]
 [0.067 0.020 0.131 0.141 0.000 -0.073 -0.031 0.059 0.127 0.138]
 [0.002 -0.010 0.119 0.138 -0.116 0.135 -0.124 -0.089 0.114 -0.101]
 [0.141 0.107 -0.016 -0.068 0.140 -0.000 0.136 -0.073 -0.027 0.080]
 [0.111 -0.061 -0.091 0.004 -0.117 0.102 0.050 -0.036 -0.001 0.119]
 [-0.263 0.103 -0.045 0.185 -0.288 -0.045 -0.039 0.024 -0.246 0.045]
 [0.099 0.061 -0.074 -0.098 0.041 0.145 0.008 0.196 -0.214 -0.001]
 [0.071 -0.127 -0.042 -0.048 -0.021 -0.110 -0.115 -0.052 0.023 -0.018]
 [0.086 0.000 0.128 -0.115 0.133 -0.083 -0.117 -0.028 0.079 0.034]
 [-0.170 -0.318 0.161 0.256 -0.413 -0.075 -0.129 -0.007 0.076 -0.348]
 [0.056 0.054 0.005 0.130 -0.223 -0.381 0.236 -0.091 0.138 0.155]
 [0.104 0.135 0.016 -0.149 0.070 0.061 -0.141 0.054 -0.062 -0.035]
 [-0.271 -0.211 0.153 0.124 -0.003 0.158 -0.003 -0.011 -0.068 0.247]
 [-0.106 0.133 0.095 -0.046 0.034 0.022 -0.043 -0.032 0.088 -0.019]
 [0.116 0.256 0.277 -0.261 -0.243 -0.192 -0.097 -0.481 -0.139 -0.172]
 [0.111 0.063 0.110 0.010 0.023 -0.105 -0.105 0.063 -0.124 0.086]
 [-0.083 0.274 -0.183 0.113 -0.172 0.185 0.086 -0.231 -0.170 0.008]
 [-0.104 0.384 0.245 -0.224 0.033 -0.310 0.211 -0.234 0.326 -0.231]
 [0.058 0.015 -0.023 0.142 -0.148 0.163 -0.046 0.030 -0.113 0.149]
 [-0.053 -0.094 -0.130 0.088 -0.148 0.051 -0.093 0.003 0.129 -0.016]
 [-0.122 0.077 0.060 -0.091 -0.052 -0.037 -0.113 0.041 -0.085 -0.031]
 [-0.075 0.165 0.054 -0.025 0.177 -0.112 -0.464 -0.331 0.453 -0.132]
 [-0.011 0.056 -0.000 0.099 0.055 -0.028 -0.079 -0.059 -0.086 0.128]
 [0.036 -0.053 -0.045 0.287 -0.114 -0.423 0.185 -0.318 0.109 0.088]
 [-0.112 -0.027 -0.043 -0.068 0.083 0.123 0.038 0.142 -0.178 0.096]
 [0.074 0.042 -0.086 -0.113 0.054 -0.097 0.055 -0.063 -0.028 -0.075]
 [0.119 -0.014 -0.151 -0.009 0.011 0.091 0.008 0.132 0.038 -0.063]
 [0.088 -0.357 0.174 0.162 -0.088 0.125 0.145 0.052 -0.263 -0.287]
 [-0.091 0.046 0.132 0.093 0.054 -0.062 -0.083 0.067 -0.069 0.065]
 [0.027 -0.039 0.095 0.006 0.042 -0.004 -0.065 -0.121 -0.004 -0.086]
 [0.065 0.063 -0.026 0.080 0.045 -0.097 0.036 -0.077 0.059 0.117]
 [-0.034 0.025 0.072 -0.161 0.095 0.007 -0.213 -0.150 -0.183 -0.120]
 [0.032 0.114 -0.058 0.115 0.065 0.071 -0.145 -0.091 0.099 0.054]
 [0.056 -0.096 0.128 0.128 0.137 -0.135 -0.125 -0.121 0.059 0.046]
 [0.054 0.139 -0.076 -0.085 -0.003 -0.126 -0.080 -0.064 0.015 -0.056]
 [-0.038 0.062 -0.099 0.044 0.150 -0.135 -0.082 0.089 0.143 0.059]
 [-0.021 -0.108 -0.072 -0.343 0.023 -0.467 0.188 0.592 -0.340 -0.123]
 [0.245 -0.258 0.164 -0.213 0.027 0.082 0.107 0.199 -0.133 0.212]
 [-0.380 -0.204 -0.077 0.028 0.134 0.017 0.100 0.054 0.085 0.200]
 [-0.044 -0.086 -0.039 -0.271 -0.093 0.046 -0.449 0.212 0.243 0.241]
 [0.023 0.065 0.112 -0.016 -0.109 -0.007 0.099 -0.005 0.045 -0.037]
 [-0.016 0.053 -0.003 0.038 -0.062 0.015 -0.024 0.084 -0.003 0.092]
 [-0.058 -0.024 -0.009 0.062 -0.255 -0.002 -0.061 0.150 0.026 0.050]
 [-0.014 0.094 0.237 -0.389 -0.186 0.061 0.095 -0.243 -0.001 0.122]
 [-0.065 0.010 -0.077 -0.101 0.057 -0.096 -0.121 0.079 0.074 -0.091]
 [-0.009 0.108 -0.049 -0.035 0.060 -0.027 -0.103 -0.089 0.104 -0.085]
 [0.111 0.108 0.067 -0.067 0.160 -0.078 0.197 -0.436 0.194 -0.262]
 [-0.000 -0.101 -0.127 -0.157 0.017 -0.022 0.120 0.103 -0.081 -0.057]
 [-0.021 -0.109 -0.131 -0.009 0.022 0.114 -0.021 0.102 0.068 0.155]
 [0.230 -0.230 -0.013 -0.203 0.154 -0.224 0.127 -0.070 0.091 0.233]
 [-0.041 0.114 -0.083 0.083 -0.084 -0.148 -0.016 -0.096 -0.139 -0.117]
 [-0.095 -0.364 0.175 0.123 0.137 -0.007 0.040 0.009 -0.123 0.071]
 [0.042 -0.645 0.111 0.143 0.154 0.140 0.049 -0.014 0.099 -0.269]
 [0.148 0.158 -0.109 0.102 -0.158 -0.199 -0.335 0.124 0.026 0.042]
 [0.142 -0.104 0.006 0.353 -0.164 -0.280 -0.476 -0.130 0.109 0.126]
 [-0.042 -0.031 0.105 0.032 -0.058 0.051 -0.025 0.075 0.117 0.052]
 [0.012 0.037 0.074 0.018 -0.139 0.067 0.109 -0.070 -0.064 0.109]
 [0.023 0.023 -0.018 0.015 -0.119 0.099 -0.058 0.043 -0.002 0.031]
 [0.128 0.123 -0.030 -0.086 0.075 0.099 0.116 -0.003 -0.013 -0.134]
 [-0.065 -0.128 -0.103 0.037 0.050 -0.140 0.151 0.071 0.054 0.124]
 [-0.084 -0.043 0.113 -0.100 0.128 0.074 0.132 0.200 -0.082 -0.510]
 [0.052 -0.091 -0.140 0.091 0.111 -0.084 0.016 0.105 0.100 0.007]
 [0.032 -0.103 -0.084 0.030 0.051 -0.076 0.057 -0.094 -0.030 -0.013]
 [-0.163 -0.164 -0.202 0.114 -0.215 -0.208 -0.188 -0.174 -0.216 -0.117]
 [0.337 0.018 -0.215 0.088 0.078 -0.349 0.064 -0.259 0.236 -0.563]
 [-0.196 -0.153 0.177 0.137 0.145 0.071 0.160 -0.026 -0.298 0.067]
 [0.111 -0.420 0.426 -0.421 0.005 0.042 0.055 -0.418 -0.070 0.147]
 [-0.120 0.123 0.032 -0.049 0.070 -0.022 0.145 -0.091 0.051 -0.048]
 [0.001 0.154 0.018 -0.009 0.019 0.082 -0.058 -0.019 0.083 -0.129]
 [-0.073 0.082 0.100 -0.051 0.014 -0.002 0.004 -0.066 0.046 -0.144]
 [0.030 -0.006 -0.102 0.044 0.079 -0.047 -0.126 -0.122 -0.034 0.051]
 [0.041 0.137 -0.139 -0.131 -0.051 0.017 -0.000 0.134 -0.131 -0.060]
 [0.122 0.140 -0.076 -0.041 -0.051 -0.012 0.135 -0.018 -0.034 0.113]
 [-0.100 -0.104 0.026 -0.051 -0.106 -0.089 -0.063 0.008 0.043 -0.110]
 [-0.039 0.092 -0.425 0.071 -0.187 0.357 -0.173 0.043 0.159 0.191]
 [-0.043 0.141 -0.240 -0.050 0.077 -0.069 0.010 0.153 -0.053 0.141]
 [0.002 -0.085 0.009 0.111 -0.003 -0.021 0.128 -0.098 -0.029 -0.044]
 [0.371 0.056 -0.274 0.189 -0.340 0.048 0.284 0.046 -0.412 0.136]
 [0.066 -0.009 0.188 -0.064 -0.447 -0.454 0.140 -0.053 0.130 0.107]
 [-0.077 -0.239 -0.030 0.051 0.042 -0.025 -0.063 0.185 0.178 -0.598]
 [0.125 -0.274 -0.032 0.093 0.128 0.173 -0.148 0.051 0.120 -0.077]
 [0.023 -0.318 -0.344 0.209 -0.093 -0.053 0.132 0.112 0.289 0.177]
 [0.234 -0.342 0.252 -0.273 0.026 -0.124 0.237 -0.022 0.069 -0.446]
 [-0.041 0.001 0.047 0.024 0.022 -0.030 -0.105 -0.122 0.101 -0.103]
 [0.122 0.125 0.158 -0.180 0.032 0.097 -0.217 0.063 0.053 0.138]
 [-0.013 -0.013 -0.140 -0.145 0.039 0.073 -0.126 0.093 -0.128 0.090]
 [-0.006 0.045 -0.023 -0.070 0.005 -0.058 -0.035 0.036 -0.119 0.075]
 [-0.121 0.143 0.099 -0.114 0.007 0.067 -0.107 0.088 0.063 0.111]
 [0.064 0.032 0.066 -0.027 -0.042 -0.120 -0.059 -0.036 -0.106 0.125]
 [0.040 -0.077 0.238 -0.027 -0.102 -0.352 -0.219 0.249 0.209 -0.042]
 [0.043 -0.017 0.147 0.043 0.142 -0.010 -0.105 -0.131 -0.049 -0.080]
 [0.172 0.124 0.005 0.290 -0.260 0.022 -0.066 -0.393 0.250 -0.257]
 [0.059 -0.088 0.053 0.000 -0.066 0.035 -0.101 0.054 0.145 -0.101]
 [0.020 -0.073 -0.016 -0.134 0.010 -0.095 0.105 -0.025 0.035 -0.065]
 [-0.119 0.018 0.067 0.107 -0.012 -0.036 -0.086 0.056 -0.130 0.088]
 [-0.025 0.055 0.038 0.107 0.066 0.126 -0.037 0.057 0.130 0.088]
 [0.141 -0.370 0.066 -0.055 0.237 0.133 -0.421 0.018 0.076 -0.332]
 [0.118 0.061 0.131 -0.108 0.035 0.072 0.143 0.097 0.052 -0.096]
 [0.190 0.146 0.140 -0.178 -0.266 0.087 0.181 -0.156 -0.018 0.072]
 [0.011 -0.006 -0.043 -0.043 -0.013 -0.106 -0.037 -0.093 -0.045 0.003]
 [0.044 -0.039 -0.003 -0.054 -0.092 -0.003 -0.057 0.008 0.051 0.055]
 [-0.090 0.122 -0.451 0.099 0.142 -0.142 0.344 0.079 0.169 -0.352]
 [-0.082 -0.044 -0.013 0.023 -0.033 -0.011 -0.087 0.005 0.075 -0.036]
 [0.216 0.130 -0.249 -0.033 -0.144 0.211 -0.230 0.025 0.041 0.165]
 [-0.363 -0.022 0.044 -0.079 -0.276 -0.170 0.121 -0.138 0.649 -0.449]
 [-0.044 -0.099 0.028 0.114 0.110 0.008 0.052 0.124 -0.165 -0.061]
 [0.142 -0.044 0.068 -0.046 0.099 0.103 0.022 -0.015 -0.012 -0.053]
 [-0.177 0.124 -0.154 0.041 -0.055 -0.064 0.037 0.189 -0.092 0.053]
 [-0.020 0.021 0.140 -0.095 0.019 0.078 -0.022 0.091 -0.024 0.148]
 [0.136 -0.011 -0.133 0.017 0.065 -0.060 -0.063 0.054 -0.033 0.095]
 [-0.033 0.196 -0.212 0.120 -0.292 0.096 -0.046 -0.370 -0.238 0.254]
 [-0.001 0.051 -0.050 0.025 -0.064 0.135 0.135 -0.332 -0.052 -0.365]
 [0.027 0.237 -0.026 -0.262 -0.182 -0.299 -0.115 -0.188 0.113 0.133]
 [-0.116 -0.015 0.075 -0.143 -0.025 0.143 -0.009 0.075 0.134 0.104]
 [-0.383 -0.194 0.246 0.191 -0.459 -0.063 0.105 -0.288 0.351 0.095]
 [0.197 -0.263 -0.139 -0.332 -0.131 -0.297 -0.056 -0.170 0.204 0.090]
 [0.143 -0.041 0.137 0.093 0.123 0.129 0.000 0.124 0.085 0.001]
 [-0.064 -0.055 0.034 0.092 0.120 -0.148 -0.018 -0.056 0.056 -0.035]
 [0.008 -0.127 -0.179 0.101 0.145 0.143 -0.069 0.105 -0.132 0.040]
 [-0.277 0.209 -0.116 0.010 0.171 0.197 -0.188 0.149 -0.404 -0.412]
 [0.143 -0.125 -0.127 0.128 -0.025 0.115 0.045 -0.076 -0.090 0.144]
 [-0.098 -0.035 0.084 0.024 -0.094 0.057 -0.047 -0.151 0.079 -0.025]
 [-0.132 0.051 -0.080 0.098 -0.096 0.087 0.128 0.050 0.077 -0.098]
 [0.063 -0.117 -0.042 0.095 0.134 -0.070 -0.331 0.213 0.112 -0.205]
 [-0.007 0.096 -0.010 0.088 0.033 -0.063 -0.021 0.187 -0.295 -0.182]
 [0.036 -0.108 -0.018 -0.022 -0.132 0.128 -0.038 -0.076 0.076 -0.020]
 [0.006 0.329 0.231 -0.483 -0.188 -0.179 0.265 0.186 -0.057 -0.089]
 [0.023 0.103 0.092 0.127 -0.112 -0.103 0.075 -0.082 -0.065 0.036]
 [-0.390 0.023 -0.406 0.295 -0.216 0.116 0.220 -0.247 0.240 -0.308]
 [0.325 -0.181 -0.117 0.155 0.133 -0.092 0.170 -0.388 -0.120 0.193]
 [-0.194 0.195 -0.271 -0.110 0.033 0.046 0.200 -0.446 0.007 0.071]
 [-0.350 -0.108 0.364 0.092 0.185 -0.331 0.217 -0.432 -0.163 0.058]
 [-0.135 0.117 -0.024 -0.045 0.015 0.008 0.045 -0.138 0.018 0.100]
 [0.081 -0.185 0.086 0.110 0.060 0.042 0.004 -0.002 -0.249 0.028]
 [0.048 -0.142 -0.024 -0.138 0.107 -0.106 -0.019 0.000 -0.129 -0.086]
 [-0.078 0.195 -0.217 -0.081 0.289 -0.282 -0.063 -0.233 0.172 0.177]
 [-0.098 -0.052 0.082 -0.102 0.002 0.133 0.115 0.053 0.033 -0.135]
 [-0.059 0.007 0.122 -0.005 0.011 0.057 0.007 0.062 -0.015 0.125]
 [0.132 -0.108 -0.140 0.106 0.125 0.004 0.010 -0.050 -0.032 -0.035]]
%

[-0.016 -0.061 0.092 0.058 0.046 -0.009 -0.122 -0.040 0.067 -0.029]
%
=========================================================================================================

