[[[[0.024 0.279 -0.124 0.131 -0.187 0.058 0.226 0.271 0.225 -0.156
    -0.032 0.275 0.102 -0.128 0.148 -0.030]
   [0.213 0.352 -0.178 -0.167 -0.269 -0.047 -0.070 0.181 0.150 -0.024
    0.145 0.163 -0.135 -0.055 0.026 -0.192]
   [0.052 0.131 -0.134 0.055 -0.253 0.127 0.004 0.091 0.055 -0.006
    0.098 0.149 0.042 0.086 0.030 -0.100]]

  [[-0.138 0.055 0.212 -0.209 -0.058 0.213 0.079 0.142 0.018 0.098
    0.025 -0.128 -0.016 -0.123 0.205 -0.152]
   [0.248 0.005 -0.026 -0.233 -0.211 0.145 0.058 0.159 -0.006 0.091
    -0.211 0.042 -0.223 0.146 -0.013 0.029]
   [0.178 0.108 0.149 -0.151 -0.213 -0.082 -0.245 0.235 0.142 -0.102
    -0.097 0.133 0.098 -0.248 -0.067 0.029]]

  [[-0.208 -0.121 0.182 0.012 -0.187 -0.172 0.095 -0.064 0.189 -0.159
    0.114 0.130 -0.046 0.125 0.283 -0.000]
   [-0.061 0.065 0.050 0.150 0.138 -0.027 0.029 0.026 -0.124 0.090
    0.184 0.134 -0.021 -0.060 0.220 -0.004]
   [-0.094 -0.069 -0.179 0.123 0.039 -0.156 -0.097 -0.151 0.117 -0.084
    0.100 0.222 0.086 -0.120 0.200 -0.164]]]


 [[[-0.157 0.320 0.177 -0.197 0.098 -0.055 -0.107 0.090 0.084 0.056
    0.053 0.292 -0.046 0.143 0.126 -0.089]
   [0.228 0.187 0.057 0.008 0.126 -0.060 -0.149 0.025 -0.250 -0.021
    0.040 0.218 0.234 -0.152 -0.213 0.263]
   [-0.141 0.038 0.133 -0.070 -0.143 -0.125 -0.044 0.023 -0.333 -0.040
    0.153 0.262 0.048 0.035 -0.124 0.086]]

  [[0.116 -0.190 0.161 -0.059 0.104 -0.092 0.120 0.059 0.124 -0.130
    -0.201 -0.300 0.031 0.184 -0.062 0.128]
   [0.323 -0.215 -0.165 -0.264 0.115 -0.083 -0.019 -0.171 -0.265 0.147
    0.133 -0.229 -0.134 0.137 -0.160 0.296]
   [-0.044 -0.006 0.033 0.106 0.253 0.072 -0.082 0.188 -0.270 -0.065
    0.008 -0.252 -0.189 0.135 0.111 0.226]]

  [[-0.169 0.045 -0.108 0.105 -0.139 -0.323 0.150 -0.128 0.178 -0.103
    0.025 -0.048 -0.087 0.147 -0.066 -0.135]
   [0.156 -0.106 0.106 0.093 0.177 -0.343 -0.176 -0.244 0.311 -0.118
    0.024 -0.067 0.114 0.145 0.222 0.184]
   [-0.188 0.015 -0.200 0.263 0.220 -0.243 0.051 -0.028 0.257 0.040
    -0.032 -0.107 0.086 -0.215 0.262 -0.154]]]


 [[[-0.140 -0.037 0.181 0.122 0.127 0.218 -0.122 -0.107 -0.230 -0.031
    0.111 -0.050 0.164 0.164 -0.148 0.239]
   [-0.110 -0.112 -0.086 0.112 0.123 0.181 0.063 0.099 0.064 -0.156
    -0.147 0.142 0.278 -0.026 0.025 0.225]
   [0.038 -0.043 0.157 -0.006 -0.023 -0.021 0.256 0.076 -0.090 -0.035
    0.226 -0.013 0.241 -0.078 -0.205 -0.078]]

  [[-0.143 -0.332 0.041 0.065 0.122 0.346 0.077 -0.199 -0.056 -0.129
    -0.006 -0.231 -0.105 0.157 -0.216 -0.096]
   [-0.004 -0.275 -0.099 -0.101 0.160 0.252 -0.116 -0.218 -0.230 -0.064
    -0.177 -0.238 -0.030 0.060 0.003 -0.012]
   [-0.025 -0.094 -0.061 0.177 0.208 0.346 0.032 -0.041 -0.229 0.164
    0.193 -0.228 -0.241 0.007 -0.214 -0.102]]

  [[0.145 -0.097 0.116 -0.000 -0.050 -0.161 -0.091 -0.073 0.206 -0.021
    -0.125 -0.055 0.076 -0.124 -0.101 -0.191]
   [0.067 -0.147 -0.129 0.035 -0.149 -0.023 0.008 -0.170 0.007 -0.074
    -0.130 0.173 -0.072 0.065 -0.042 -0.012]
   [-0.088 -0.019 -0.245 0.021 0.058 -0.058 -0.001 0.065 0.237 -0.187
    0.195 -0.067 -0.218 0.040 -0.066 -0.121]]]]
%

[0.039 0.031 0.044 0.006 0.036 0.069 -0.018 0.053 0.024 -0.026 -0.077
 0.066 0.062 -0.011 0.011 0.055]
%
=========================================================================================================
